digraph Tree {
node [shape=box, style="filled, rounded", color="black", fontname=helvetica] ;
edge [fontname=helvetica] ;
0 [label=<lstat &le; 5.495<br/>mse = 81.988<br/>samples = 404<br/>value = 22.316>, fillcolor="#f6d1b7"] ;
1 [label=<rm &le; 7.433<br/>mse = 80.51<br/>samples = 62<br/>value = 36.781>, fillcolor="#eb9e66"] ;
0 -> 1 [labeldistance=2.5, labelangle=45, headlabel="True"] ;
2 [label=<tax &le; 378.0<br/>mse = 46.856<br/>samples = 40<br/>value = 32.318>, fillcolor="#eeae7f"] ;
1 -> 2 ;
3 [label=<rm &le; 6.785<br/>mse = 19.598<br/>samples = 30<br/>value = 30.143>, fillcolor="#f0b58b"] ;
2 -> 3 ;
4 [label=<mse = 10.503<br/>samples = 15<br/>value = 26.807>, fillcolor="#f2c19e"] ;
3 -> 4 ;
5 [label=<mse = 6.427<br/>samples = 15<br/>value = 33.48>, fillcolor="#edaa79"] ;
3 -> 5 ;
6 [label=<mse = 71.906<br/>samples = 10<br/>value = 38.84>, fillcolor="#e9975b"] ;
2 -> 6 ;
7 [label=<mse = 39.63<br/>samples = 22<br/>value = 44.895>, fillcolor="#e58139"] ;
1 -> 7 ;
8 [label=<lstat &le; 14.805<br/>mse = 37.449<br/>samples = 342<br/>value = 19.694>, fillcolor="#f7dbc6"] ;
0 -> 8 [labeldistance=2.5, labelangle=-45, headlabel="False"] ;
9 [label=<rm &le; 6.544<br/>mse = 23.615<br/>samples = 211<br/>value = 22.848>, fillcolor="#f5cfb4"] ;
8 -> 9 ;
10 [label=<lstat &le; 7.76<br/>mse = 9.966<br/>samples = 165<br/>value = 21.333>, fillcolor="#f6d5bd"] ;
9 -> 10 ;
11 [label=<dis &le; 4.52<br/>mse = 3.226<br/>samples = 34<br/>value = 23.676>, fillcolor="#f5ccb0"] ;
10 -> 11 ;
12 [label=<mse = 4.367<br/>samples = 10<br/>value = 25.01>, fillcolor="#f4c8a8"] ;
11 -> 12 ;
13 [label=<mse = 1.701<br/>samples = 24<br/>value = 23.121>, fillcolor="#f5ceb3"] ;
11 -> 13 ;
14 [label=<ptratio &le; 18.65<br/>mse = 9.919<br/>samples = 131<br/>value = 20.724>, fillcolor="#f7d7c0"] ;
10 -> 14 ;
15 [label=<tax &le; 298.0<br/>mse = 11.532<br/>samples = 55<br/>value = 21.796>, fillcolor="#f6d3ba"] ;
14 -> 15 ;
16 [label=<mse = 12.564<br/>samples = 23<br/>value = 23.726>, fillcolor="#f5ccaf"] ;
15 -> 16 ;
17 [label=<rm &le; 6.098<br/>mse = 6.191<br/>samples = 32<br/>value = 20.409>, fillcolor="#f7d8c2"] ;
15 -> 17 ;
18 [label=<mse = 3.878<br/>samples = 18<br/>value = 19.344>, fillcolor="#f8dcc8"] ;
17 -> 18 ;
19 [label=<mse = 5.832<br/>samples = 14<br/>value = 21.779>, fillcolor="#f6d3ba"] ;
17 -> 19 ;
20 [label=<lstat &le; 14.3<br/>mse = 7.319<br/>samples = 76<br/>value = 19.949>, fillcolor="#f7dac4"] ;
14 -> 20 ;
21 [label=<nox &le; 0.627<br/>mse = 6.094<br/>samples = 65<br/>value = 20.294>, fillcolor="#f7d8c2"] ;
20 -> 21 ;
22 [label=<mse = 5.209<br/>samples = 55<br/>value = 19.922>, fillcolor="#f7dac4"] ;
21 -> 22 ;
23 [label=<mse = 6.014<br/>samples = 10<br/>value = 22.34>, fillcolor="#f6d1b7"] ;
21 -> 23 ;
24 [label=<mse = 9.692<br/>samples = 11<br/>value = 17.909>, fillcolor="#f9e1d0"] ;
20 -> 24 ;
25 [label=<tax &le; 267.0<br/>mse = 34.805<br/>samples = 46<br/>value = 28.283>, fillcolor="#f1bc96"] ;
9 -> 25 ;
26 [label=<mse = 41.247<br/>samples = 12<br/>value = 34.342>, fillcolor="#eda774"] ;
25 -> 26 ;
27 [label=<lstat &le; 8.945<br/>mse = 15.001<br/>samples = 34<br/>value = 26.144>, fillcolor="#f3c4a2"] ;
25 -> 27 ;
28 [label=<mse = 11.297<br/>samples = 22<br/>value = 27.445>, fillcolor="#f2bf9a"] ;
27 -> 28 ;
29 [label=<mse = 12.994<br/>samples = 12<br/>value = 23.758>, fillcolor="#f5ccaf"] ;
27 -> 29 ;
30 [label=<nox &le; 0.603<br/>mse = 17.894<br/>samples = 131<br/>value = 14.613>, fillcolor="#fbede2"] ;
8 -> 30 ;
31 [label=<crim &le; 0.54<br/>mse = 11.294<br/>samples = 45<br/>value = 17.844>, fillcolor="#f9e1d0"] ;
30 -> 31 ;
32 [label=<mse = 4.265<br/>samples = 24<br/>value = 19.542>, fillcolor="#f8dbc7"] ;
31 -> 32 ;
33 [label=<mse = 12.273<br/>samples = 21<br/>value = 15.905>, fillcolor="#fae8db"] ;
31 -> 33 ;
34 [label=<lstat &le; 19.645<br/>mse = 13.024<br/>samples = 86<br/>value = 12.922>, fillcolor="#fcf3ec"] ;
30 -> 34 ;
35 [label=<crim &le; 5.977<br/>mse = 6.915<br/>samples = 40<br/>value = 15.34>, fillcolor="#fbeade"] ;
34 -> 35 ;
36 [label=<mse = 6.187<br/>samples = 20<br/>value = 16.55>, fillcolor="#fae6d7"] ;
35 -> 36 ;
37 [label=<mse = 4.716<br/>samples = 20<br/>value = 14.13>, fillcolor="#fceee5"] ;
35 -> 37 ;
38 [label=<crim &le; 9.87<br/>mse = 8.832<br/>samples = 46<br/>value = 10.82>, fillcolor="#fefaf7"] ;
34 -> 38 ;
39 [label=<mse = 6.676<br/>samples = 21<br/>value = 12.452>, fillcolor="#fdf4ee"] ;
38 -> 39 ;
40 [label=<mse = 6.522<br/>samples = 25<br/>value = 9.448>, fillcolor="#ffffff"] ;
38 -> 40 ;
}